{
    "in_shape": [
        null,
        1
    ],
    "layers": [
        {
            "type": "dense",
            "activation": "",
            "shape": [
                null,
                16
            ],
            "weights": [
                [
                    [
                        0.1416083127260208,
                        0.598652720451355
                    ],
                    [
                        0.35145771503448486,
                        0.46126529574394226
                    ],
                    [
                        -0.16307604312896729,
                        0.47194185853004456
                    ],
                    [
                        0.044115275144577026,
                        -0.4233212471008301
                    ],
                    [
                        -0.6479341387748718,
                        -0.5385739207267761
                    ],
                    [
                        0.5645151734352112,
                        -0.042162731289863586
                    ],
                    [
                        -0.2020898014307022,
                        0.4049927294254303
                    ],
                    [
                        0.47979307174682617,
                        -0.33755213022232056
                    ],
                    [
                        0.021525926887989044,
                        -0.6532356142997742
                    ],
                    [
                        -0.04453837871551514,
                        -0.6514347791671753
                    ],
                    [
                        0.06990983337163925,
                        0.17824870347976685
                    ],
                    [
                        -0.7326949834823608,
                        0.026430057361721992
                    ],
                    [
                        0.64765864610672,
                        -0.10787209868431091
                    ],
                    [
                        0.5189395546913147,
                        -0.301631361246109
                    ],
                    [
                        0.8011420369148254,
                        0.38587409257888794
                    ],
                    [
                        0.8061914443969727,
                        0.022514324635267258
                    ]
                ],
                [
                    -0.0934092327952385,
                    -0.17936716973781586,
                    -0.21112535893917084,
                    -0.5899138450622559,
                    -0.5157173871994019,
                    0.011876748874783516,
                    -0.4133405089378357,
                    -0.25516951084136963,
                    0.5216315984725952,
                    0.14962156116962433,
                    0.0024713475722819567,
                    -0.32612863183021545,
                    -0.4481823742389679,
                    0.017895532771945,
                    -0.4713464677333832,
                    0.368865966796875
                ]
            ]
        },
        {
            "type": "dense",
            "activation": "",
            "shape": [
                null,
                32
            ],
            "weights": [
                [
                    [
                        0.23337537050247192,
                        0.11587121337652206,
                        -0.12057744711637497,
                        0.19765686988830566,
                        -0.17212508618831635,
                        -0.044722266495227814,
                        -0.07531632483005524,
                        -0.08146911859512329,
                        -0.1389015167951584,
                        -0.010465439409017563,
                        0.14268526434898376,
                        0.04880254343152046,
                        -0.19241678714752197,
                        0.007242362014949322,
                        0.42923107743263245,
                        0.3462677597999573
                    ],
                    [
                        0.23921674489974976,
                        0.14931048452854156,
                        0.045422740280628204,
                        -0.018706083297729492,
                        0.11619734019041061,
                        0.3515378534793854,
                        0.08769672363996506,
                        0.23357918858528137,
                        -0.16412341594696045,
                        -0.20650248229503632,
                        0.21640777587890625,
                        0.06022675335407257,
                        -0.2913646101951599,
                        0.24798819422721863,
                        0.08857809752225876,
                        0.06784916669130325
                    ],
                    [
                        -0.21691051125526428,
                        -0.2496470808982849,
                        0.02331620454788208,
                        -0.04251343011856079,
                        0.06129854917526245,
                        -0.226418137550354,
                        -0.14217719435691833,
                        -0.031667470932006836,
                        -0.13048675656318665,
                        -0.08597970008850098,
                        0.03310665488243103,
                        -0.06587198376655579,
                        -0.23289018869400024,
                        -0.23454537987709045,
                        -0.2053990364074707,
                        0.1164216697216034
                    ],
                    [
                        0.17966033518314362,
                        -0.06066647171974182,
                        0.1122417151927948,
                        -0.1456371545791626,
                        -0.14030306041240692,
                        -0.02392696589231491,
                        -0.9630926847457886,
                        0.18768136203289032,
                        0.2004404067993164,
                        0.3424144685268402,
                        -0.13350452482700348,
                        -0.041746508330106735,
                        -0.08133506029844284,
                        -0.13419857621192932,
                        -0.11969620734453201,
                        0.1977594792842865
                    ],
                    [
                        0.07402420043945312,
                        -0.536803126335144,
                        0.21944554150104523,
                        0.004595041275024414,
                        -0.051663219928741455,
                        0.21836614608764648,
                        -0.08687147498130798,
                        -0.08494270592927933,
                        -0.1027349978685379,
                        -0.07402527332305908,
                        0.13064244389533997,
                        0.3622012138366699,
                        -0.011822499334812164,
                        0.18870404362678528,
                        -0.021533535793423653,
                        -0.04682723805308342
                    ],
                    [
                        0.04164012148976326,
                        -0.12331698089838028,
                        -0.17745789885520935,
                        0.1603066325187683,
                        0.06375272572040558,
                        0.38307318091392517,
                        -0.002715273993089795,
                        0.5700786113739014,
                        0.24541449546813965,
                        0.5181766152381897,
                        0.11305578052997589,
                        -0.17144744098186493,
                        0.16760402917861938,
                        0.38722944259643555,
                        -0.14342527091503143,
                        0.10989812761545181
                    ],
                    [
                        0.0060049621388316154,
                        0.03325343504548073,
                        0.010735978372395039,
                        -0.13677194714546204,
                        -0.21578563749790192,
                        0.1758999079465866,
                        -0.18861930072307587,
                        0.07519242912530899,
                        0.22100339829921722,
                        0.1875375509262085,
                        -0.25244781374931335,
                        -0.37818342447280884,
                        0.06846176087856293,
                        0.03940653055906296,
                        -0.01938559301197529,
                        0.16788087785243988
                    ],
                    [
                        0.1162564605474472,
                        0.014778194017708302,
                        -0.43914711475372314,
                        0.08175700902938843,
                        0.45530420541763306,
                        0.12397579103708267,
                        -0.24133671820163727,
                        0.2010808140039444,
                        0.08464368432760239,
                        0.05026959255337715,
                        0.04191130772233009,
                        -0.6133301854133606,
                        -0.05906563252210617,
                        0.05788746848702431,
                        0.2648490369319916,
                        -0.16794845461845398
                    ],
                    [
                        -0.012397214770317078,
                        -0.03094904124736786,
                        0.09174184501171112,
                        -0.24413999915122986,
                        -0.06984136998653412,
                        0.2051260620355606,
                        0.07082540541887283,
                        -0.1801849752664566,
                        -0.0864780843257904,
                        0.07596983015537262,
                        0.039402931928634644,
                        0.0032665140461176634,
                        -0.06512460112571716,
                        0.1279090791940689,
                        0.20316065847873688,
                        0.29749178886413574
                    ],
                    [
                        -0.5549895167350769,
                        -0.9766308665275574,
                        0.11827130615711212,
                        -0.1515025794506073,
                        0.025255590677261353,
                        0.12086011469364166,
                        -0.30036771297454834,
                        0.2404118776321411,
                        -0.17742043733596802,
                        -0.3250062167644501,
                        -0.9867798686027527,
                        0.027055377140641212,
                        -0.0124933747574687,
                        0.15683259069919586,
                        0.06602401286363602,
                        0.15177381038665771
                    ],
                    [
                        -0.21973209083080292,
                        -0.16742761433124542,
                        -0.08910389989614487,
                        -0.1290179193019867,
                        -0.03868291899561882,
                        0.23010998964309692,
                        -0.020918667316436768,
                        -0.45714643597602844,
                        0.021543467417359352,
                        -0.4210509657859802,
                        -0.12338417023420334,
                        -0.29149138927459717,
                        -0.518432080745697,
                        0.005718444008380175,
                        -0.19725055992603302,
                        0.011159512214362621
                    ],
                    [
                        0.03739241510629654,
                        -0.1690945029258728,
                        0.33614060282707214,
                        -0.09945365786552429,
                        0.1002199798822403,
                        0.04664797708392143,
                        0.14877039194107056,
                        -0.15522894263267517,
                        -0.16376559436321259,
                        -0.03590923920273781,
                        0.19812381267547607,
                        -0.16386708617210388,
                        -0.15448586642742157,
                        -0.14454935491085052,
                        -0.47617870569229126,
                        -0.22883941233158112
                    ],
                    [
                        -0.02799203433096409,
                        0.22294817864894867,
                        -0.0898173600435257,
                        -0.11662817001342773,
                        0.20290356874465942,
                        -0.20638930797576904,
                        0.020879078656435013,
                        -0.6010367274284363,
                        -0.11537893861532211,
                        -0.1685900092124939,
                        -0.1273152083158493,
                        -0.14588579535484314,
                        -0.0580083392560482,
                        0.015446907840669155,
                        0.1539904624223709,
                        0.2483680099248886
                    ],
                    [
                        0.06724239885807037,
                        0.1101621463894844,
                        -0.008994339033961296,
                        0.01346498727798462,
                        -0.15816044807434082,
                        0.3636150360107422,
                        -0.1425330489873886,
                        0.1254635751247406,
                        -0.016815824434161186,
                        -0.19923005998134613,
                        0.243141770362854,
                        -0.15790647268295288,
                        -0.0649556815624237,
                        0.09431187063455582,
                        0.182608500123024,
                        0.14831547439098358
                    ],
                    [
                        -0.19818273186683655,
                        -0.22370043396949768,
                        0.08231863379478455,
                        0.0017152130603790283,
                        0.14737114310264587,
                        -0.07390031218528748,
                        0.03735381364822388,
                        -0.2059284746646881,
                        -0.21043431758880615,
                        -0.15722760558128357,
                        -0.1631995141506195,
                        0.052019864320755005,
                        0.17977532744407654,
                        -0.07753807306289673,
                        -0.20669442415237427,
                        0.09483647346496582
                    ],
                    [
                        -0.277588814496994,
                        -0.10436733067035675,
                        -0.0911177471280098,
                        -0.07748067378997803,
                        0.006800023838877678,
                        -0.16864171624183655,
                        -0.08324279636144638,
                        -0.18036814033985138,
                        0.011817983351647854,
                        -0.042663704603910446,
                        -0.2634834945201874,
                        -0.21332146227359772,
                        -0.19594497978687286,
                        -0.40431392192840576,
                        -0.04546382278203964,
                        -0.23391032218933105
                    ],
                    [
                        -0.26077935099601746,
                        -0.01545338612049818,
                        0.1740921139717102,
                        -0.21906611323356628,
                        0.15741392970085144,
                        -0.1091003268957138,
                        0.019520187750458717,
                        -0.27347204089164734,
                        0.22235584259033203,
                        0.23545612394809723,
                        0.16933424770832062,
                        0.17595916986465454,
                        0.3651706874370575,
                        0.0037008386570960283,
                        -0.06821423023939133,
                        -0.012483233585953712
                    ],
                    [
                        -0.14606037735939026,
                        -0.2456430196762085,
                        0.09925156831741333,
                        0.21524199843406677,
                        -0.13024687767028809,
                        -0.0531066358089447,
                        0.09758418798446655,
                        0.1382642686367035,
                        0.06144872307777405,
                        -0.0583268404006958,
                        0.09793844819068909,
                        -0.03576889634132385,
                        -0.0463939905166626,
                        -0.045830994844436646,
                        -0.23609229922294617,
                        -0.08842313289642334
                    ],
                    [
                        -0.05126010999083519,
                        0.043596819043159485,
                        0.07264446467161179,
                        -0.1047593355178833,
                        0.2410438507795334,
                        -0.3253926932811737,
                        -0.025837648659944534,
                        -0.21929533779621124,
                        -0.06810449063777924,
                        0.18623226881027222,
                        -0.18513254821300507,
                        0.20424066483974457,
                        0.18045374751091003,
                        -0.048638977110385895,
                        -0.20863932371139526,
                        -0.5699409246444702
                    ],
                    [
                        -0.01621316559612751,
                        -0.14927658438682556,
                        0.21529626846313477,
                        -0.10242915153503418,
                        -0.039183735847473145,
                        -0.18248698115348816,
                        -0.15004058182239532,
                        0.18460983037948608,
                        -0.11187216639518738,
                        -0.22552713751792908,
                        -0.17458944022655487,
                        -0.07784005254507065,
                        0.18785995244979858,
                        -0.22343167662620544,
                        0.21588698029518127,
                        0.09470242261886597
                    ],
                    [
                        -0.11235631257295609,
                        0.030307630077004433,
                        0.07110463827848434,
                        -0.06913113594055176,
                        0.07452193647623062,
                        -0.020551398396492004,
                        -0.3708609640598297,
                        -0.2279852330684662,
                        -0.1350679099559784,
                        0.12789610028266907,
                        0.2540431022644043,
                        -0.5700655579566956,
                        -0.5159549117088318,
                        -0.181171253323555,
                        -0.08517412096261978,
                        0.17905908823013306
                    ],
                    [
                        -0.18222445249557495,
                        -0.06997865438461304,
                        -0.04595044255256653,
                        0.06232479214668274,
                        0.00580480694770813,
                        -0.15958452224731445,
                        -0.006394863128662109,
                        0.04742777347564697,
                        -0.02999165654182434,
                        -0.094684898853302,
                        -0.14548847079277039,
                        -0.18584823608398438,
                        0.05652981996536255,
                        -0.00959867238998413,
                        -0.2238703966140747,
                        0.1306493580341339
                    ],
                    [
                        0.15319794416427612,
                        -0.1671980917453766,
                        -0.22997617721557617,
                        -0.10083085298538208,
                        0.19545140862464905,
                        0.012944012880325317,
                        0.05367964506149292,
                        0.170843243598938,
                        -0.056578993797302246,
                        -0.09182706475257874,
                        -0.06568443775177002,
                        0.027198076248168945,
                        -0.1510111689567566,
                        0.11521363258361816,
                        -0.035371869802474976,
                        -0.06879931688308716
                    ],
                    [
                        0.16149163246154785,
                        0.07483184337615967,
                        -0.02165246196091175,
                        -0.004775345325469971,
                        -0.05131746083498001,
                        -0.12511186301708221,
                        -0.10700945556163788,
                        -0.33414193987846375,
                        0.14160354435443878,
                        -0.043697625398635864,
                        0.3324580788612366,
                        0.3693871796131134,
                        0.4967435598373413,
                        0.1581851989030838,
                        0.0942927896976471,
                        -0.2709914445877075
                    ],
                    [
                        0.05988563224673271,
                        -0.2266789972782135,
                        0.34057629108428955,
                        -0.1761275827884674,
                        0.07976772636175156,
                        0.08293265849351883,
                        -0.11042625457048416,
                        -0.20593741536140442,
                        0.16577769815921783,
                        -0.14774058759212494,
                        -0.1148429811000824,
                        -0.6048265695571899,
                        0.047157756984233856,
                        -0.06443025916814804,
                        0.08411139994859695,
                        -0.05760076269507408
                    ],
                    [
                        -0.07461785525083542,
                        0.3786686658859253,
                        0.24317196011543274,
                        0.07725608348846436,
                        0.1180596724152565,
                        0.27068081498146057,
                        0.05225371569395065,
                        -0.07612676918506622,
                        -0.022696837782859802,
                        -0.2087882161140442,
                        -0.09252119809389114,
                        -0.22996191680431366,
                        -0.15434329211711884,
                        -0.07620980590581894,
                        0.15605397522449493,
                        0.48786982893943787
                    ],
                    [
                        -0.13738004863262177,
                        0.1283486783504486,
                        0.16460348665714264,
                        -0.030447691679000854,
                        0.044966038316488266,
                        -0.24752065539360046,
                        0.20786356925964355,
                        -0.02569187432527542,
                        0.14437414705753326,
                        -0.2781739830970764,
                        -0.12518881261348724,
                        0.34167471528053284,
                        0.3056896924972534,
                        0.10720326006412506,
                        0.010656454600393772,
                        -0.16714449226856232
                    ],
                    [
                        -0.11007677018642426,
                        0.010744154453277588,
                        0.03976862505078316,
                        0.09217095375061035,
                        0.02343571186065674,
                        -0.042173832654953,
                        -0.044334303587675095,
                        -0.11220225691795349,
                        -0.08920225501060486,
                        -0.1498510241508484,
                        0.20014016330242157,
                        0.11947667598724365,
                        0.19802641868591309,
                        0.24100914597511292,
                        0.0526735782623291,
                        -0.19976797699928284
                    ],
                    [
                        -0.19820120930671692,
                        0.010809212923049927,
                        -0.014969110488891602,
                        0.20008814334869385,
                        -0.18006333708763123,
                        0.12428483366966248,
                        0.1618601679801941,
                        -0.23576247692108154,
                        -0.08135661482810974,
                        -0.20530593395233154,
                        -0.02797389030456543,
                        0.18337610363960266,
                        0.04630964994430542,
                        0.18854251503944397,
                        0.17588135600090027,
                        -0.04519093036651611
                    ],
                    [
                        -0.19545415043830872,
                        0.17471875250339508,
                        -0.01588454097509384,
                        0.24053353071212769,
                        0.05780889838933945,
                        0.1241697296500206,
                        0.2023879885673523,
                        -0.001837465213611722,
                        -0.04785102978348732,
                        -0.126174196600914,
                        0.049850448966026306,
                        -0.04441436380147934,
                        -0.23721860349178314,
                        -0.00011194698890903965,
                        -0.026783457025885582,
                        0.30470287799835205
                    ],
                    [
                        -0.19782109558582306,
                        0.2147880345582962,
                        -0.00913917738944292,
                        -0.07682549953460693,
                        0.07862289249897003,
                        -0.20055383443832397,
                        0.26381489634513855,
                        -0.15469998121261597,
                        -0.043156594038009644,
                        0.07197541743516922,
                        -0.2247871458530426,
                        0.7156103253364563,
                        -0.10855495929718018,
                        -1.0704522132873535,
                        0.13536186516284943,
                        -0.2995854318141937
                    ],
                    [
                        -0.20866073668003082,
                        0.19719724357128143,
                        -0.018900247290730476,
                        -0.24483516812324524,
                        0.25253474712371826,
                        -0.18723119795322418,
                        -0.10151541978120804,
                        -0.1266470104455948,
                        0.1659678816795349,
                        0.0041768248192965984,
                        0.08026392757892609,
                        0.31437253952026367,
                        -0.03516891598701477,
                        -0.009901036508381367,
                        0.09772718697786331,
                        -0.27369460463523865
                    ]
                ],
                [
                    0.2642478942871094,
                    0.20110073685646057,
                    -0.09290719032287598,
                    -0.09057881683111191,
                    -0.1177527904510498,
                    -0.05191289260983467,
                    0.23862139880657196,
                    -0.06163778901100159,
                    0.2711648941040039,
                    -0.03695882111787796,
                    0.1445186287164688,
                    0.2539251744747162,
                    -0.15774005651474,
                    0.028590509667992592,
                    -0.2176596224308014,
                    -0.003823008155450225,
                    0.2732166647911072,
                    -0.08134499192237854,
                    0.11985184997320175,
                    -0.10293783992528915,
                    -0.018475903198122978,
                    -0.15126600861549377,
                    -0.14237529039382935,
                    0.11163218319416046,
                    0.0827951654791832,
                    0.25435975193977356,
                    0.22700701653957367,
                    -0.0920061320066452,
                    -0.23140478134155273,
                    0.19409222900867462,
                    0.0019022879423573613,
                    0.13435310125350952
                ]
            ]
        },
        {
            "type": "dense",
            "activation": "",
            "shape": [
                null,
                32
            ],
            "weights": [
                [
                    [
                        0.014373852871358395,
                        -0.003184086410328746,
                        -0.0035004853270947933,
                        0.2672102153301239,
                        -0.19610871374607086,
                        0.37416496872901917,
                        0.31575897336006165,
                        0.29729893803596497,
                        0.21771462261676788,
                        0.3861134648323059,
                        -0.10139121860265732,
                        0.034324176609516144,
                        -0.21280215680599213,
                        0.16921527683734894,
                        0.1532171368598938,
                        -0.03667266666889191,
                        0.26209184527397156,
                        0.13888774812221527,
                        0.5097496509552002,
                        0.11443908512592316,
                        0.29608461260795593,
                        -0.16805072128772736,
                        -0.04124454781413078,
                        -0.05932598188519478,
                        0.19179219007492065,
                        0.037182774394750595,
                        0.43566057085990906,
                        0.12282806634902954,
                        0.06493516266345978,
                        0.18325558304786682,
                        -0.5941954255104065,
                        -0.050084106624126434
                    ],
                    [
                        -0.3236173093318939,
                        -0.17159326374530792,
                        -0.06703167408704758,
                        0.03901281952857971,
                        -0.005121362395584583,
                        0.18155460059642792,
                        0.06908027082681656,
                        -0.3812010586261749,
                        -0.20935408771038055,
                        -0.0033858229871839285,
                        -0.03102673403918743,
                        -0.05960295349359512,
                        0.16375833749771118,
                        -0.2759341895580292,
                        -0.016793811693787575,
                        0.033992234617471695,
                        -0.13183525204658508,
                        -0.09968140721321106,
                        0.08610064536333084,
                        0.1614972949028015,
                        0.18857726454734802,
                        -0.15210893750190735,
                        0.0692298412322998,
                        -0.2638925015926361,
                        -0.18322713673114777,
                        -0.11120976507663727,
                        -0.08898822963237762,
                        0.07597536593675613,
                        -0.044617705047130585,
                        -0.05734784156084061,
                        -0.08041202276945114,
                        -0.015528871677815914
                    ],
                    [
                        -0.27602720260620117,
                        -0.2984371483325958,
                        0.08745355159044266,
                        -0.2751712203025818,
                        -0.13412293791770935,
                        -0.22036857903003693,
                        -0.1251172125339508,
                        -0.13087353110313416,
                        -0.3571774959564209,
                        -0.06542186439037323,
                        -0.3140943944454193,
                        0.01256474107503891,
                        -0.39035555720329285,
                        -0.39524534344673157,
                        -0.01720876805484295,
                        -0.040678299963474274,
                        -0.013910974375903606,
                        -0.007272670511156321,
                        -0.014191104099154472,
                        0.06336461752653122,
                        -0.08646188676357269,
                        0.1513744443655014,
                        -0.1309797167778015,
                        -0.30798202753067017,
                        -0.04610132426023483,
                        -0.3075729310512543,
                        -0.13406860828399658,
                        0.04898815229535103,
                        -0.10884001851081848,
                        -0.32816049456596375,
                        0.21675410866737366,
                        -0.04529409483075142
                    ],
                    [
                        0.013866538181900978,
                        0.01259231474250555,
                        -0.04990707337856293,
                        0.1805177628993988,
                        0.1723880022764206,
                        -0.14667321741580963,
                        0.011107652448117733,
                        -0.18194276094436646,
                        -0.14840111136436462,
                        0.08686349540948868,
                        -0.03234517574310303,
                        0.3047543168067932,
                        0.6389027833938599,
                        0.09776785969734192,
                        -0.08964242786169052,
                        -0.25237056612968445,
                        -0.07552896440029144,
                        0.14293232560157776,
                        -0.17750133574008942,
                        0.01649908907711506,
                        0.3357670307159424,
                        -0.1765577644109726,
                        -0.031617701053619385,
                        0.3311687707901001,
                        -0.14180146157741547,
                        0.016861356794834137,
                        -0.32703709602355957,
                        -0.07882796972990036,
                        -0.05875205248594284,
                        0.03752177581191063,
                        -0.08995872735977173,
                        -0.21069321036338806
                    ],
                    [
                        -0.02225560136139393,
                        -0.053263626992702484,
                        0.06475996226072311,
                        -0.15102912485599518,
                        -0.1563337743282318,
                        -0.1493396908044815,
                        0.2430909126996994,
                        -0.04229632765054703,
                        -0.1277555674314499,
                        0.14643260836601257,
                        -0.1078406572341919,
                        -0.16402067244052887,
                        -0.03480064496397972,
                        0.2802342474460602,
                        -0.07412494719028473,
                        0.1338573843240738,
                        -0.04359541833400726,
                        -0.04578154906630516,
                        -0.17914435267448425,
                        -0.020402099937200546,
                        -0.3073050081729889,
                        0.07221397012472153,
                        0.02372768521308899,
                        -0.08826448768377304,
                        0.06814434379339218,
                        0.07832769304513931,
                        -0.19823092222213745,
                        0.05173294246196747,
                        -0.09857934713363647,
                        -0.026026401668787003,
                        -0.5616888999938965,
                        -0.04447536915540695
                    ],
                    [
                        0.172001451253891,
                        0.08586189150810242,
                        -0.02215912751853466,
                        -0.10114921629428864,
                        0.040236666798591614,
                        -0.11320242285728455,
                        0.23190803825855255,
                        0.06469190120697021,
                        0.07300744950771332,
                        -0.09743840992450714,
                        0.07221207022666931,
                        0.09272061288356781,
                        0.027286149561405182,
                        0.32266291975975037,
                        -0.006250124424695969,
                        -0.0280567966401577,
                        0.012528124265372753,
                        -0.0006662152009084821,
                        0.20427779853343964,
                        -0.15507028996944427,
                        -0.24567106366157532,
                        -0.0758485198020935,
                        -0.02149301767349243,
                        -0.024870092049241066,
                        0.07564200460910797,
                        0.21084877848625183,
                        0.1795823574066162,
                        0.027344346046447754,
                        -0.1033296138048172,
                        0.15770268440246582,
                        0.023591401055455208,
                        -0.12478071451187134
                    ],
                    [
                        0.10515214502811432,
                        -0.17999917268753052,
                        0.09084529429674149,
                        0.01799643039703369,
                        -0.19111810624599457,
                        -0.02863301709294319,
                        -0.05268976837396622,
                        0.12150093168020248,
                        -0.3231213390827179,
                        -1.0940958261489868,
                        0.3553943932056427,
                        0.02018357254564762,
                        0.17453619837760925,
                        -0.2642747163772583,
                        0.12445154786109924,
                        -0.34447386860847473,
                        -0.3276314437389374,
                        -0.07867492735385895,
                        -0.5671477913856506,
                        -0.16042672097682953,
                        0.21263177692890167,
                        0.08140809088945389,
                        0.030743764713406563,
                        0.04946356266736984,
                        -0.3610975742340088,
                        -0.21175985038280487,
                        -0.22723791003227234,
                        0.09998951107263565,
                        0.014292755164206028,
                        -0.4178256094455719,
                        0.06591343879699707,
                        -0.09275808930397034
                    ],
                    [
                        0.022388650104403496,
                        -0.2507701516151428,
                        -0.04819755628705025,
                        -0.30546584725379944,
                        0.10799846798181534,
                        -0.33921319246292114,
                        0.005332618486136198,
                        -0.3318423926830292,
                        -0.12728962302207947,
                        0.11243782192468643,
                        -0.2943340539932251,
                        -0.02529718354344368,
                        -0.15223002433776855,
                        -0.0860898420214653,
                        -0.167531818151474,
                        0.11613529175519943,
                        -0.06171664223074913,
                        0.10473169386386871,
                        -0.18127290904521942,
                        0.03555069863796234,
                        -0.19434404373168945,
                        0.0008501019328832626,
                        0.11038453131914139,
                        -0.15944541990756989,
                        -0.15742328763008118,
                        -0.14024899899959564,
                        -0.05167306959629059,
                        0.060005489736795425,
                        0.007472804747521877,
                        -0.19512614607810974,
                        -0.2069920152425766,
                        -0.3347497284412384
                    ],
                    [
                        -0.06650016456842422,
                        -0.16945604979991913,
                        0.15415631234645844,
                        0.03256067633628845,
                        -0.09885123372077942,
                        0.035275984555482864,
                        -0.04703659191727638,
                        0.1939469873905182,
                        0.044704291969537735,
                        0.08539712429046631,
                        0.2219703644514084,
                        0.7663892507553101,
                        -0.5832685828208923,
                        -0.23216687142848969,
                        -0.14585787057876587,
                        -0.021983420476317406,
                        -0.00594963226467371,
                        -0.09748030453920364,
                        -0.2945190370082855,
                        -0.1762271225452423,
                        -0.1592540591955185,
                        0.13069425523281097,
                        -0.12066718190908432,
                        -0.08812200278043747,
                        -0.1315726637840271,
                        -0.035655878484249115,
                        0.2574639320373535,
                        0.13795627653598785,
                        0.0019369848305359483,
                        0.03573644161224365,
                        -0.44042620062828064,
                        -0.08927088975906372
                    ],
                    [
                        0.11967162787914276,
                        0.2501184642314911,
                        0.09669017791748047,
                        0.037741295993328094,
                        0.3914060890674591,
                        0.03620900958776474,
                        0.04424590989947319,
                        0.09769601374864578,
                        0.09005619585514069,
                        0.036285653710365295,
                        0.11419781297445297,
                        0.14574399590492249,
                        0.32091590762138367,
                        0.06205132231116295,
                        0.029760416597127914,
                        0.004335539415478706,
                        0.2771180272102356,
                        0.07311531901359558,
                        0.0278706606477499,
                        0.054225243628025055,
                        -0.009450121782720089,
                        -0.012335265055298805,
                        0.09447595477104187,
                        0.23345622420310974,
                        -0.08908696472644806,
                        0.2565707266330719,
                        0.055276185274124146,
                        0.05964984372258186,
                        -0.0030609569512307644,
                        0.29034000635147095,
                        0.37006881833076477,
                        0.045660048723220825
                    ],
                    [
                        -0.30971795320510864,
                        -0.17509835958480835,
                        0.07683458924293518,
                        -0.07688086479902267,
                        -0.06144857034087181,
                        -0.16010411083698273,
                        -0.2126787155866623,
                        -0.32944732904434204,
                        -0.3235294818878174,
                        0.08922160416841507,
                        -0.23092612624168396,
                        -0.20138944685459137,
                        0.019769037142395973,
                        -0.19172121584415436,
                        0.03330983221530914,
                        0.03533771634101868,
                        -0.10261466354131699,
                        0.0027921232394874096,
                        -0.13657021522521973,
                        -0.055300578474998474,
                        -0.055179353803396225,
                        0.17065271735191345,
                        0.03891749307513237,
                        -0.2573663294315338,
                        -0.06549935787916183,
                        -0.2651364207267761,
                        -0.22676098346710205,
                        0.038515739142894745,
                        -0.08943493664264679,
                        -0.03153306990861893,
                        -0.08456384390592575,
                        -0.2543501853942871
                    ],
                    [
                        0.09191509336233139,
                        -0.06728997826576233,
                        -0.062307391315698624,
                        -0.0012699096696451306,
                        0.05576900392770767,
                        0.0536157488822937,
                        -0.07035187631845474,
                        0.016393393278121948,
                        -0.04508742317557335,
                        -0.04743070527911186,
                        0.035262737423181534,
                        0.007257059216499329,
                        0.007094646338373423,
                        0.015289883129298687,
                        0.11701714247465134,
                        -0.015346630476415157,
                        -0.11895232647657394,
                        -0.11898301541805267,
                        -0.02076306939125061,
                        -0.025694984942674637,
                        -0.009850702248513699,
                        0.021972332149744034,
                        -0.15338312089443207,
                        0.019907506182789803,
                        0.06427571177482605,
                        0.01358055043965578,
                        -0.05391485244035721,
                        -0.09336607903242111,
                        0.15294551849365234,
                        -0.0759291797876358,
                        0.10332390666007996,
                        0.0005003783153370023
                    ],
                    [
                        0.5424669981002808,
                        0.5231430530548096,
                        0.10052400082349777,
                        0.37175366282463074,
                        -0.05878010764718056,
                        0.37192052602767944,
                        0.43640559911727905,
                        0.4022965431213379,
                        0.5504283905029297,
                        0.2665846049785614,
                        0.2539030909538269,
                        0.21454758942127228,
                        0.7681581974029541,
                        0.3136489987373352,
                        -0.049624837934970856,
                        0.18404965102672577,
                        0.39937832951545715,
                        -0.008316985331475735,
                        0.4469135105609894,
                        -0.09889551997184753,
                        0.3784337043762207,
                        0.14654992520809174,
                        0.1344379037618637,
                        0.2656899392604828,
                        0.486025869846344,
                        0.5766038298606873,
                        0.2766872048377991,
                        -0.10468891263008118,
                        0.15627966821193695,
                        0.305729478597641,
                        -0.17949840426445007,
                        0.3665006756782532
                    ],
                    [
                        0.22427843511104584,
                        0.10058356821537018,
                        0.07549259066581726,
                        0.17281900346279144,
                        0.4158516526222229,
                        0.007869835942983627,
                        0.046548619866371155,
                        0.11193966120481491,
                        0.25767186284065247,
                        0.43504685163497925,
                        0.031023584306240082,
                        0.17997221648693085,
                        0.010730619542300701,
                        0.10322462767362595,
                        -0.069524846971035,
                        -0.012271229177713394,
                        0.24649417400360107,
                        -0.11508557200431824,
                        0.5896608829498291,
                        0.17538003623485565,
                        0.17665912210941315,
                        -0.12631343305110931,
                        -0.07249715179204941,
                        0.38465607166290283,
                        -0.05576504021883011,
                        0.02939465455710888,
                        0.35520535707473755,
                        0.1171540692448616,
                        0.05890563502907753,
                        0.21942849457263947,
                        -0.0788506418466568,
                        0.133908212184906
                    ],
                    [
                        0.3196008801460266,
                        0.32667893171310425,
                        -0.07193632423877716,
                        0.2467501312494278,
                        0.10448858886957169,
                        0.3185206651687622,
                        0.3139432370662689,
                        0.1662691980600357,
                        0.21080414950847626,
                        0.02468472346663475,
                        0.23686526715755463,
                        0.02140711434185505,
                        0.3813345730304718,
                        0.3221815824508667,
                        0.0627998560667038,
                        -0.08872540295124054,
                        0.28324514627456665,
                        -0.07066049426794052,
                        0.09385070204734802,
                        -0.1559905707836151,
                        0.34087926149368286,
                        -0.046012431383132935,
                        -0.14452938735485077,
                        0.11316869407892227,
                        0.18723998963832855,
                        0.1536218225955963,
                        0.2906971871852875,
                        -0.13503167033195496,
                        0.04284975305199623,
                        0.2027646005153656,
                        -0.07197217643260956,
                        0.098906509578228
                    ],
                    [
                        0.2893209457397461,
                        0.1073867678642273,
                        -0.0483662486076355,
                        0.22394190728664398,
                        0.5990774035453796,
                        0.09924526512622833,
                        -0.03956064581871033,
                        0.3737604022026062,
                        0.32630786299705505,
                        0.18262328207492828,
                        -0.07627119868993759,
                        0.32055625319480896,
                        0.3718474209308624,
                        0.02256712317466736,
                        0.031022904440760612,
                        0.3648623526096344,
                        0.3224007189273834,
                        -0.09339996427297592,
                        0.24355311691761017,
                        -0.008098654448986053,
                        0.4175662398338318,
                        0.11384483426809311,
                        0.038391921669244766,
                        0.14789456129074097,
                        0.09800972044467926,
                        0.08940926194190979,
                        0.04987703636288643,
                        0.08525671809911728,
                        0.051725246012210846,
                        -0.025651417672634125,
                        0.15804775059223175,
                        0.12450401484966278
                    ],
                    [
                        -0.03970949724316597,
                        0.21611636877059937,
                        0.17197205126285553,
                        0.10600986331701279,
                        -0.21829570829868317,
                        -0.15192683041095734,
                        -0.05577133968472481,
                        0.23348824679851532,
                        0.18112364411354065,
                        -0.1554146260023117,
                        0.1606287658214569,
                        0.06475502997636795,
                        0.1286354959011078,
                        0.04640061780810356,
                        -0.03947656974196434,
                        -0.1400071531534195,
                        -0.21972376108169556,
                        -0.05923598259687424,
                        -0.13686338067054749,
                        0.1018933579325676,
                        0.29590854048728943,
                        -0.01011035405099392,
                        0.08022026717662811,
                        0.03220358490943909,
                        -0.12437213957309723,
                        -0.007443795911967754,
                        -0.16671638190746307,
                        0.04768802970647812,
                        -0.11162584275007248,
                        -0.046593330800533295,
                        0.1576811820268631,
                        -0.1345214545726776
                    ],
                    [
                        0.02589275874197483,
                        0.15770520269870758,
                        -0.03022710792720318,
                        0.13602030277252197,
                        -0.02009517513215542,
                        0.04032958671450615,
                        0.04475317522883415,
                        -0.15567030012607574,
                        -0.14940692484378815,
                        0.17944534122943878,
                        0.1780776083469391,
                        -0.09252964705228806,
                        0.08600594103336334,
                        0.01731068827211857,
                        -0.17535044252872467,
                        -0.10353339463472366,
                        -0.10791920870542526,
                        -0.03768128529191017,
                        -0.0009709129226393998,
                        0.03566044196486473,
                        0.17423447966575623,
                        -0.11736378073692322,
                        -0.1436108499765396,
                        0.002227094490081072,
                        0.15454480051994324,
                        -0.0012980890460312366,
                        -0.08038092404603958,
                        -0.07334456592798233,
                        -0.12792569398880005,
                        -0.06961049139499664,
                        -0.035649195313453674,
                        0.02074555680155754
                    ],
                    [
                        -0.015758680179715157,
                        -0.062387581914663315,
                        0.1454426348209381,
                        0.0025453141424804926,
                        0.042149126529693604,
                        0.09849055856466293,
                        0.04899025708436966,
                        -0.05254770815372467,
                        0.08733111619949341,
                        -0.061010558158159256,
                        0.04369159787893295,
                        -0.058993563055992126,
                        -0.12542718648910522,
                        0.20482738316059113,
                        -0.014723979867994785,
                        0.058985207229852676,
                        0.07458631694316864,
                        -0.07715152949094772,
                        -0.011120932176709175,
                        0.013962109573185444,
                        -0.007869398221373558,
                        0.11238766461610794,
                        -0.06495063006877899,
                        0.07311593741178513,
                        0.13063064217567444,
                        -0.051340892910957336,
                        0.041257183998823166,
                        0.015863602980971336,
                        0.019705990329384804,
                        0.015293734148144722,
                        -0.08394545316696167,
                        0.08559822291135788
                    ],
                    [
                        -0.25655993819236755,
                        -0.2828587293624878,
                        0.08239790797233582,
                        -0.018307987600564957,
                        -0.560673177242279,
                        0.23948481678962708,
                        -0.15963125228881836,
                        0.1765751987695694,
                        -0.27353253960609436,
                        -0.4724326431751251,
                        -0.176431804895401,
                        -0.3473241925239563,
                        -0.06033310666680336,
                        -0.2214708924293518,
                        -0.03056628443300724,
                        0.0678931251168251,
                        -0.11554256081581116,
                        -0.05189836397767067,
                        -0.06888028979301453,
                        0.011417066678404808,
                        -0.16787999868392944,
                        -0.17258711159229279,
                        0.09138650447130203,
                        -0.22067376971244812,
                        -0.09063030779361725,
                        -0.23337306082248688,
                        -0.24693599343299866,
                        -0.024173133075237274,
                        -0.1412247270345688,
                        -0.18150170147418976,
                        -0.19203783571720123,
                        -0.0009115883149206638
                    ],
                    [
                        -0.07442750781774521,
                        0.1265014261007309,
                        -0.10750843584537506,
                        -0.06025458127260208,
                        0.45629817247390747,
                        0.02480955794453621,
                        -0.13040317595005035,
                        0.26829737424850464,
                        0.1612548828125,
                        -0.11422201246023178,
                        -0.06350555270910263,
                        0.09088516980409622,
                        0.1489284336566925,
                        -0.016878562048077583,
                        0.11683032661676407,
                        -0.057975515723228455,
                        0.015959149226546288,
                        -0.10428253561258316,
                        0.23529167473316193,
                        -0.176265686750412,
                        -0.019952530041337013,
                        0.017738154157996178,
                        -0.07381921261548996,
                        0.15238822996616364,
                        -0.22651754319667816,
                        -0.17372305691242218,
                        0.1321357637643814,
                        0.02114611119031906,
                        -0.1594194769859314,
                        -0.10548534989356995,
                        0.7774030566215515,
                        0.2276395857334137
                    ],
                    [
                        0.2651503384113312,
                        0.26294150948524475,
                        0.11294994503259659,
                        0.1455656737089157,
                        0.22051773965358734,
                        0.030374635010957718,
                        0.22078442573547363,
                        0.1640496850013733,
                        0.09321229159832001,
                        0.140165776014328,
                        0.12478367984294891,
                        0.1346280723810196,
                        0.1434866338968277,
                        0.15515398979187012,
                        -0.16686803102493286,
                        0.03741805627942085,
                        0.15787534415721893,
                        0.029936885461211205,
                        0.007429800927639008,
                        0.09914278239011765,
                        0.1725800484418869,
                        -0.032740429043769836,
                        0.01662003993988037,
                        0.0019094449235126376,
                        0.22854509949684143,
                        0.2547900676727295,
                        0.3425235450267792,
                        0.0012260116636753082,
                        0.1515849381685257,
                        0.19504034519195557,
                        0.019896477460861206,
                        0.058749131858348846
                    ],
                    [
                        -0.17817898094654083,
                        -0.16166183352470398,
                        -0.09106806665658951,
                        -0.09877484291791916,
                        0.10456208139657974,
                        -0.25417304039001465,
                        -0.18269839882850647,
                        0.17199386656284332,
                        -0.1600092351436615,
                        -0.13878758251667023,
                        -0.3188211917877197,
                        0.18963056802749634,
                        -0.3238239884376526,
                        -0.23606160283088684,
                        0.05183744058012962,
                        -0.04272707551717758,
                        -0.090010866522789,
                        0.15016937255859375,
                        -0.013626202009618282,
                        -0.13827167451381683,
                        -0.14567428827285767,
                        -0.09129171818494797,
                        0.08340896666049957,
                        0.19908374547958374,
                        0.10697195678949356,
                        -0.2742334008216858,
                        0.09474828094244003,
                        0.08296497166156769,
                        0.03403984010219574,
                        -0.23840364813804626,
                        -0.18726180493831635,
                        0.18185481429100037
                    ],
                    [
                        -0.052273787558078766,
                        0.04100969433784485,
                        -0.06929567456245422,
                        0.058239880949258804,
                        0.14620919525623322,
                        0.03506825864315033,
                        -0.034247513860464096,
                        -0.045341651886701584,
                        -0.09793056547641754,
                        0.028098180890083313,
                        -0.0934484452009201,
                        -0.08843547105789185,
                        -0.13221584260463715,
                        -0.2062518149614334,
                        0.1636740118265152,
                        -0.00019491944112814963,
                        0.1638350635766983,
                        0.05913042649626732,
                        -0.06783707439899445,
                        0.07108250260353088,
                        -0.11676852405071259,
                        -0.09297194331884384,
                        0.10117087513208389,
                        -0.03684673085808754,
                        0.02163505367934704,
                        -0.07732857763767242,
                        0.2118060141801834,
                        -0.16351671516895294,
                        0.03567441925406456,
                        -0.061796847730875015,
                        0.06825661659240723,
                        0.005714088678359985
                    ],
                    [
                        0.02894379012286663,
                        -0.02155953459441662,
                        -0.09667032957077026,
                        0.006401468999683857,
                        0.141593337059021,
                        -0.2613871097564697,
                        -0.033309098333120346,
                        0.08565455675125122,
                        -0.0526522658765316,
                        0.1309913545846939,
                        -0.0911439061164856,
                        0.5020487308502197,
                        0.1600397229194641,
                        0.17497722804546356,
                        -0.06369532644748688,
                        -0.06626027077436447,
                        0.10473279654979706,
                        0.13380488753318787,
                        -0.1908467561006546,
                        -0.02857695147395134,
                        0.2536157965660095,
                        0.1530071496963501,
                        0.12209996581077576,
                        0.2946130633354187,
                        0.22025789320468903,
                        0.1525985300540924,
                        0.2321825474500656,
                        -0.07055190950632095,
                        -0.010224235244095325,
                        -0.07459879666566849,
                        -0.5592909455299377,
                        -0.07057385891675949
                    ],
                    [
                        -0.05490914359688759,
                        -0.142331063747406,
                        0.06504607200622559,
                        0.03987995162606239,
                        0.10318087041378021,
                        -0.028356043621897697,
                        0.14875014126300812,
                        0.015438469126820564,
                        -0.14901424944400787,
                        -0.0430392250418663,
                        0.01851818710565567,
                        0.06693389266729355,
                        0.006565024610608816,
                        -0.08426560461521149,
                        -0.12772288918495178,
                        -0.005760750733315945,
                        0.11251074820756912,
                        0.16501441597938538,
                        0.014902505092322826,
                        -0.034495532512664795,
                        0.03365720808506012,
                        0.0011767189716920257,
                        0.009424477815628052,
                        -0.008308114483952522,
                        0.0651710256934166,
                        0.08432145416736603,
                        -0.0908002108335495,
                        -0.03919413685798645,
                        -0.15488535165786743,
                        -0.02428029477596283,
                        -0.03444919362664223,
                        -0.03140818327665329
                    ],
                    [
                        -0.09865622222423553,
                        0.1014065071940422,
                        0.12741027772426605,
                        0.057003334164619446,
                        0.0565299317240715,
                        -0.0077719492837786674,
                        0.05012940615415573,
                        -0.05180203169584274,
                        0.11307505518198013,
                        -0.09129824489355087,
                        0.051070574671030045,
                        -0.13247735798358917,
                        0.024487469345331192,
                        0.06157694384455681,
                        0.03963649645447731,
                        0.04872220754623413,
                        -0.07896161079406738,
                        -0.07733356207609177,
                        -0.058450791984796524,
                        0.11641563475131989,
                        -0.022026237100362778,
                        0.1532105803489685,
                        -0.05814305320382118,
                        0.04144594445824623,
                        -0.0659857764840126,
                        -0.0411863848567009,
                        0.06464393436908722,
                        -0.018416378647089005,
                        -0.06196948140859604,
                        0.12641601264476776,
                        -0.13770905137062073,
                        -0.09523754566907883
                    ],
                    [
                        0.15239952504634857,
                        0.16339190304279327,
                        0.12019621580839157,
                        -0.34008675813674927,
                        0.3112437427043915,
                        -0.3223778307437897,
                        -0.21064713597297668,
                        -0.04790857434272766,
                        0.06816478073596954,
                        0.09688752889633179,
                        0.14277847111225128,
                        0.0543706938624382,
                        -0.221195787191391,
                        0.14517401158809662,
                        0.06603176146745682,
                        -0.0045375642366707325,
                        -0.15969179570674896,
                        -0.02597767300903797,
                        -0.09396365284919739,
                        -0.021071264520287514,
                        -0.03507344797253609,
                        -0.07456207275390625,
                        -0.11774726957082748,
                        -0.028758469969034195,
                        0.001399036031216383,
                        0.04007992893457413,
                        0.08089203387498856,
                        0.11877679824829102,
                        -0.10265642404556274,
                        0.09504971653223038,
                        0.09451285749673843,
                        -0.07635638862848282
                    ],
                    [
                        -0.14398090541362762,
                        -0.08937780559062958,
                        -0.1469077467918396,
                        -0.010878209955990314,
                        0.20846089720726013,
                        0.038869164884090424,
                        -0.07508593052625656,
                        0.034758154302835464,
                        -0.07801727950572968,
                        -0.06598047912120819,
                        -0.1057102233171463,
                        -0.13898831605911255,
                        0.10336969047784805,
                        0.1676437258720398,
                        -0.11064381897449493,
                        -0.1649603545665741,
                        -0.027993571013212204,
                        0.13337865471839905,
                        0.022739948704838753,
                        -0.1533336341381073,
                        -0.08133241534233093,
                        0.10086977481842041,
                        0.11993825435638428,
                        0.009242462925612926,
                        0.05299229547381401,
                        0.047103483229875565,
                        0.10492068529129028,
                        -0.08970993012189865,
                        -0.04425899311900139,
                        -0.05235941335558891,
                        0.0022246099542826414,
                        -0.0023921052925288677
                    ],
                    [
                        0.13447631895542145,
                        -0.030603697523474693,
                        0.000276694045169279,
                        -0.17934760451316833,
                        0.0844189003109932,
                        0.03802880272269249,
                        0.16251467168331146,
                        0.0453229695558548,
                        0.1197480633854866,
                        -0.19322800636291504,
                        -0.007405469659715891,
                        0.026120439171791077,
                        0.08221914619207382,
                        0.10809607058763504,
                        0.08472589403390884,
                        0.17636464536190033,
                        -0.004500047769397497,
                        -0.10611111670732498,
                        0.00912877544760704,
                        -0.13898402452468872,
                        -0.07346777617931366,
                        -0.1762838214635849,
                        -0.05593215301632881,
                        0.0032327533699572086,
                        0.10630045086145401,
                        -0.0841730609536171,
                        -0.02470949850976467,
                        -0.04907303676009178,
                        -0.16170775890350342,
                        -0.059052009135484695,
                        0.05556881055235863,
                        0.12894874811172485
                    ],
                    [
                        -0.15126186609268188,
                        -0.16664829850196838,
                        0.06613023579120636,
                        -0.0015374382492154837,
                        -0.08393050730228424,
                        -0.011427711695432663,
                        -0.12478770315647125,
                        0.03325336053967476,
                        0.08211478590965271,
                        0.002634301083162427,
                        -0.004958955105394125,
                        0.07189052551984787,
                        -0.009499634616076946,
                        -0.1622568666934967,
                        0.05375253036618233,
                        0.1301322728395462,
                        -0.02542063407599926,
                        -0.15418268740177155,
                        -0.09967822581529617,
                        -0.1584228128194809,
                        -0.08454939723014832,
                        0.11784930527210236,
                        -0.05446498095989227,
                        -0.019012922421097755,
                        -0.04796941950917244,
                        0.13623319566249847,
                        0.00039425326394848526,
                        0.11558825522661209,
                        -0.09598371386528015,
                        -0.05121268704533577,
                        -0.07386283576488495,
                        -0.06760970503091812
                    ],
                    [
                        0.2438126653432846,
                        0.09449193626642227,
                        0.05863920599222183,
                        0.09594199806451797,
                        0.21892908215522766,
                        0.32693350315093994,
                        0.2421911656856537,
                        0.03308681398630142,
                        0.26032233238220215,
                        0.27107739448547363,
                        0.09138424694538116,
                        0.3773498833179474,
                        -0.048985544592142105,
                        0.0828099250793457,
                        0.02560231275856495,
                        -0.14619916677474976,
                        0.32222452759742737,
                        0.07491402328014374,
                        0.4582826793193817,
                        -0.02134225331246853,
                        -0.016482848674058914,
                        -0.13765135407447815,
                        -0.020540455356240273,
                        0.4433654248714447,
                        0.11758758872747421,
                        0.2585985064506531,
                        0.276615172624588,
                        0.035692065954208374,
                        0.07906030118465424,
                        0.34387344121932983,
                        0.35991179943084717,
                        0.4568836987018585
                    ]
                ],
                [
                    0.3013612926006317,
                    -0.19854119420051575,
                    -0.289700984954834,
                    0.11955846101045609,
                    0.0034711945336312056,
                    0.061098672449588776,
                    -0.14560668170452118,
                    -0.20055989921092987,
                    0.08118176460266113,
                    0.20628049969673157,
                    -0.18187403678894043,
                    0.06995139271020889,
                    0.4318881928920746,
                    0.24047090113162994,
                    0.19616059958934784,
                    0.26259133219718933,
                    0.12534812092781067,
                    -0.00776359299197793,
                    -0.06725873798131943,
                    -0.22780781984329224,
                    0.03304193913936615,
                    0.28045979142189026,
                    0.187211811542511,
                    0.043533433228731155,
                    0.2888929843902588,
                    0.046609021723270416,
                    0.048640936613082886,
                    -0.19668753445148468,
                    0.03318466991186142,
                    -0.11072323471307755,
                    0.1350935995578766,
                    0.39957866072654724
                ]
            ]
        },
        {
            "type": "dense",
            "activation": "",
            "shape": [
                null,
                16
            ],
            "weights": [
                [
                    [
                        -0.7331722378730774
                    ],
                    [
                        0.49994781613349915
                    ],
                    [
                        -1.8142610788345337
                    ],
                    [
                        -0.2332671582698822
                    ],
                    [
                        -0.28686365485191345
                    ],
                    [
                        1.111775517463684
                    ],
                    [
                        0.1252637803554535
                    ],
                    [
                        0.7040131688117981
                    ],
                    [
                        -0.17564146220684052
                    ],
                    [
                        1.4572820663452148
                    ],
                    [
                        -1.77176833152771
                    ],
                    [
                        -0.25110721588134766
                    ],
                    [
                        -1.612494707107544
                    ],
                    [
                        -0.478742778301239
                    ],
                    [
                        1.4914709329605103
                    ],
                    [
                        -0.700211226940155
                    ]
                ]
            ]
        },
        {
            "type": "residual",
            "parameters": {
                "mamba": {
                    "A_real": [
                        -2.3461554050445557,
                        -1.7495604753494263,
                        -1.0549027919769287,
                        -0.5883171558380127,
                        -0.57747483253479,
                        -1.0847721099853516,
                        -1.2859199047088623,
                        -2.7475812435150146,
                        -2.1685287952423096,
                        -1.934364914894104,
                        -0.956922173500061,
                        -0.6515783071517944,
                        -0.5615940093994141,
                        -0.7430524230003357,
                        -1.648276925086975,
                        -4.589244365692139,
                        -2.4983904361724854,
                        -2.0042166709899902,
                        -0.9894037842750549,
                        -0.2644956111907959,
                        -0.1389155387878418,
                        -1.1383291482925415,
                        -1.5659680366516113,
                        -3.7062151432037354,
                        -3.4048995971679688,
                        -1.7155543565750122,
                        -0.7394411563873291,
                        -0.33419370651245117,
                        -0.7576505541801453,
                        -0.8535546064376831,
                        -1.4618014097213745,
                        -3.2693114280700684
                    ],
                    "A_imag": [
                        -19.771522521972656,
                        -4.785329341888428,
                        -1.8219859600067139,
                        -0.1728769689798355,
                        0.10070726275444031,
                        1.1580885648727417,
                        4.864768981933594,
                        19.600645065307617,
                        -19.447303771972656,
                        -5.395008087158203,
                        -0.9303010106086731,
                        -0.07064811885356903,
                        -0.31067734956741333,
                        1.7689311504364014,
                        4.773532390594482,
                        19.17130470275879,
                        -19.444103240966797,
                        -4.547677516937256,
                        -0.8569697141647339,
                        -0.4740302860736847,
                        0.3889802396297455,
                        1.2360767126083374,
                        5.352407455444336,
                        19.294008255004883,
                        -19.169897079467773,
                        -5.176393985748291,
                        -1.722802996635437,
                        -0.12928986549377441,
                        0.17890238761901855,
                        1.558379054069519,
                        5.16126012802124,
                        19.638484954833984
                    ],
                    "B_real": [
                        [
                            0.09027763456106186,
                            0.25763291120529175,
                            0.03959126025438309,
                            -0.2897380590438843,
                            0.21538755297660828,
                            -0.22896498441696167,
                            0.14439579844474792,
                            -0.11151625216007233,
                            0.15408667922019958,
                            0.23012270033359528,
                            -0.08593662083148956,
                            -0.07859731465578079,
                            0.0488864928483963,
                            0.2101859301328659,
                            -0.18487298488616943,
                            0.037749405950307846,
                            0.2917252480983734,
                            -0.2515758275985718,
                            -0.2589229345321655,
                            0.038246288895606995,
                            -0.1667797714471817,
                            0.290977418422699,
                            0.005314765963703394,
                            -0.0897761657834053,
                            -0.08795540034770966,
                            0.1673794984817505,
                            -0.17036597430706024,
                            0.05399712547659874,
                            0.05452122166752815,
                            -0.12273678183555603,
                            0.14270266890525818,
                            0.03532569110393524
                        ],
                        [
                            0.10995768755674362,
                            0.10808955878019333,
                            -0.3096230626106262,
                            -0.012943829409778118,
                            0.0031792575027793646,
                            -0.72165447473526,
                            0.10670029371976852,
                            0.034327905625104904,
                            -0.06707287579774857,
                            0.04761475324630737,
                            0.05556971952319145,
                            0.023874616250395775,
                            -0.0719483345746994,
                            0.09518513828516006,
                            0.02324652299284935,
                            0.0495721697807312,
                            0.16397029161453247,
                            0.2910013794898987,
                            -0.13979077339172363,
                            0.22985047101974487,
                            -0.40931156277656555,
                            0.042034510523080826,
                            -0.18217746913433075,
                            -0.45174628496170044,
                            0.11292995512485504,
                            0.15546022355556488,
                            -0.309021532535553,
                            -0.20776978135108948,
                            -0.01488120574504137,
                            -0.13344985246658325,
                            -0.1282593458890915,
                            0.23763151466846466
                        ],
                        [
                            0.2529832124710083,
                            0.36815932393074036,
                            0.1272357702255249,
                            0.2675001919269562,
                            -0.02792312204837799,
                            -0.31523481011390686,
                            0.03793486952781677,
                            -0.046957336366176605,
                            0.6122948527336121,
                            -0.07926690578460693,
                            0.6310556530952454,
                            -0.16562563180923462,
                            0.1200077161192894,
                            0.378024160861969,
                            0.2916223704814911,
                            0.14398327469825745,
                            -0.16222774982452393,
                            -0.35076671838760376,
                            -0.2353079617023468,
                            -0.05439095199108124,
                            -0.4243418276309967,
                            0.12915632128715515,
                            0.21960175037384033,
                            -0.4151257276535034,
                            0.16831184923648834,
                            -0.2700100839138031,
                            0.2892393469810486,
                            0.23045724630355835,
                            0.014434891752898693,
                            0.2523300051689148,
                            0.20527654886245728,
                            0.09402182698249817
                        ],
                        [
                            0.33775565028190613,
                            0.3697029948234558,
                            0.11236072331666946,
                            -0.19125628471374512,
                            0.18022072315216064,
                            -0.39981651306152344,
                            0.2074177861213684,
                            -0.11777553707361221,
                            0.35738226771354675,
                            0.09328241646289825,
                            0.25383418798446655,
                            -0.035867512226104736,
                            -0.15174975991249084,
                            0.4412418007850647,
                            -0.15012416243553162,
                            -0.07668408006429672,
                            -0.16893617808818817,
                            -0.40431228280067444,
                            -0.458564430475235,
                            0.12628336250782013,
                            -0.3497874140739441,
                            0.309708833694458,
                            -0.02985219471156597,
                            -0.4210263788700104,
                            0.012554111890494823,
                            0.14281904697418213,
                            -0.1572282612323761,
                            0.24773435294628143,
                            0.17686258256435394,
                            -0.17568573355674744,
                            0.012412287294864655,
                            0.29119011759757996
                        ],
                        [
                            -0.12905171513557434,
                            -0.0493820458650589,
                            -0.4544592797756195,
                            -0.12295885384082794,
                            0.018712680786848068,
                            0.174769327044487,
                            0.015949463471770287,
                            -0.04189150035381317,
                            -0.34318509697914124,
                            0.14193831384181976,
                            -0.46827566623687744,
                            0.013690355233848095,
                            0.33494696021080017,
                            -0.11637691408395767,
                            0.033171769231557846,
                            -0.0074142348021268845,
                            0.36387887597084045,
                            0.0025322563014924526,
                            0.18325281143188477,
                            -0.11089690774679184,
                            0.45410698652267456,
                            -0.08988551050424576,
                            -0.1736917793750763,
                            0.03710753470659256,
                            -0.14204302430152893,
                            0.6393358111381531,
                            0.1580054610967636,
                            -0.0873173177242279,
                            -0.14472873508930206,
                            0.09173645824193954,
                            -0.19224867224693298,
                            -0.08906136453151703
                        ],
                        [
                            -0.361983984708786,
                            -0.18928194046020508,
                            0.25467154383659363,
                            0.23024049401283264,
                            -0.09884920716285706,
                            0.058885328471660614,
                            0.05592707172036171,
                            0.12079577893018723,
                            0.5006861090660095,
                            0.12112442404031754,
                            -0.27602723240852356,
                            0.41757673025131226,
                            -0.2730282247066498,
                            -0.15118029713630676,
                            -0.08733247965574265,
                            0.16791465878486633,
                            -0.16725589334964752,
                            0.08346114307641983,
                            -0.121739961206913,
                            0.4091682732105255,
                            0.43769654631614685,
                            0.02753240428864956,
                            0.3451163172721863,
                            -0.09046489745378494,
                            0.30552107095718384,
                            -0.33359766006469727,
                            -0.4330298900604248,
                            -0.1684589684009552,
                            -0.10009876638650894,
                            0.41331765055656433,
                            -0.06858060508966446,
                            -0.2583881616592407
                        ],
                        [
                            -0.04338568076491356,
                            -0.08450566977262497,
                            -0.15381872653961182,
                            0.3311266005039215,
                            -0.06017512455582619,
                            -0.16656382381916046,
                            -0.05713259428739548,
                            0.26567184925079346,
                            -0.09266918897628784,
                            -0.18601052463054657,
                            0.08510114997625351,
                            0.07245603203773499,
                            0.322745144367218,
                            -0.2623601257801056,
                            0.555955171585083,
                            -0.02778942696750164,
                            -0.20894309878349304,
                            0.5954552292823792,
                            0.06520234048366547,
                            0.3662462830543518,
                            -0.06536390632390976,
                            0.050797559320926666,
                            0.2572910189628601,
                            -0.41281917691230774,
                            -0.2072613537311554,
                            0.1762571930885315,
                            -0.6906983256340027,
                            0.10379467904567719,
                            -0.27223193645477295,
                            0.0056504858657717705,
                            -0.19262830913066864,
                            -0.40978723764419556
                        ],
                        [
                            -0.07191967219114304,
                            0.43195194005966187,
                            0.03381878137588501,
                            0.35735273361206055,
                            0.046764302998781204,
                            -0.3326071500778198,
                            -0.28949570655822754,
                            0.1786240041255951,
                            -0.09147021174430847,
                            -0.15135382115840912,
                            0.17030321061611176,
                            0.4401457905769348,
                            -0.2639809548854828,
                            -0.20794133841991425,
                            0.3272131681442261,
                            -0.16438071429729462,
                            -0.23488615453243256,
                            0.1413545161485672,
                            -0.03270347788929939,
                            0.47436514496803284,
                            -0.0720944032073021,
                            -0.5678262114524841,
                            0.4274258315563202,
                            -0.325531929731369,
                            0.11579884588718414,
                            -0.2602819502353668,
                            -0.6832893490791321,
                            -0.5448643565177917,
                            0.2561732828617096,
                            0.11225877702236176,
                            -0.06688392907381058,
                            -0.27431520819664
                        ],
                        [
                            -0.19847410917282104,
                            0.18282991647720337,
                            -0.020952897146344185,
                            0.26302334666252136,
                            0.06804237514734268,
                            0.0970868244767189,
                            -0.19567349553108215,
                            -0.11815403401851654,
                            -0.28915834426879883,
                            0.08530544489622116,
                            -0.454615980386734,
                            -0.23248617351055145,
                            0.3510427474975586,
                            -0.44005605578422546,
                            0.1017102524638176,
                            0.07468538731336594,
                            -0.0234843697398901,
                            0.3733138144016266,
                            0.10794709622859955,
                            0.1493617594242096,
